-0.16605303372542893 0.027034712969836998 0.3920027299564204 	
-0.17006770241263727 0.01128011687098427 -0.16115725563708944 	
0.3270205703993827 0.09256430596816446 -0.1371287074600134 	
-0.41320989417544696 0.3776148262836085 -0.08938346251271923 	
0.36634719778171804 -0.4609369427918314 -0.15423138914666776 	
-0.4269870833138584 0.2696010852858377 -0.07039518700366103 	


-0.3865980816325348 -0.45073880198047384 0.31689946384112383 0.3874194269716798 	
-0.3613254392517642 -0.37882245925431673 -0.3630364410407815 0.04223422137052046 	
0.4476780818670403 0.06564661717529742 -0.16915702447933464 0.40320824611318795 	
-0.37726462215478695 -0.11305086121449177 -0.4968589955592584 -0.206927719096445 	
0.3346979009338009 -0.1048647593587032 -0.14498058516133347 0.42680757215264403 	
-0.05335789817388425 -0.44496221151894977 -0.1775649472063141 0.04120909288135724 	
-0.24122974879223066 -0.4215735707233882 -0.24646906847441752 -0.0718528891719454 	
0.05811872979266445 -0.12208144338369996 0.21377329265200018 0.49414308809118035 	

0.4001056203682198 0.28065530839354913 0.3819689375393816 -0.4066897643466174 	
0.36296996806816517 0.27629231447356495 -0.039020829773124356 -0.16651502826045342 	
-0.0004063201849715735 -0.23187918377549488 0.18308412227551357 -0.3282577362335043 	
-0.18081895130541686 0.3196579168648488 0.25987603757984307 -0.3450824150989802 	
-0.09547093722388938 -0.31262824337659 0.11085459085413017 0.13580556281249287 	
-0.27950632295341704 0.035863422932258575 -0.015527269411725558 -0.44860040367597975 	
-0.41409727478730335 -0.30987908092187094 -0.4767269895463353 -0.20179815826618033 	
0.12844863437783627 0.16000060539865923 0.14861429050108005 -0.4312764039621268 	


0.0 0.0 0.0 0.0 	0.0 0.0 0.0 0.0 	
0.0 0.0 0.0 0.0 	0.0 0.0 0.0 0.0 	
0.0 0.0 0.0 0.0 	0.0 0.0 0.0 0.0 	


0.0 0.0 0.0 	0.0 0.0 0.0 	
0.0 0.0 0.0 	0.0 0.0 0.0 	
0.0 0.0 0.0 	0.0 0.0 0.0 	
0.0 0.0 0.0 	0.0 0.0 0.0 	


-0.3530582273929763 -0.13880736848330597 0.13064188124973342 -0.4559338059887949 0.11321862523913248 	0.030701741327209122 -0.12392771360627275 0.02115473824939315 0.1890626358871823 0.15136240854511768 	
-0.34868243884880074 -0.1008256603468924 -0.13420276649855126 0.15703958955389632 -0.13524970602612854 	0.11789958901273742 0.4770901565729818 0.47574581058571874 -0.1252412176075647 0.3038091535206629 	
-0.19210685194306454 -0.4047736687245066 0.1878564552746174 0.04552392967703291 0.3806489681351649 	-0.397743653426835 0.050810365533817486 -0.36046731063082915 -0.0035549549894232494 0.3347060380804105 	
0.2927824335705384 -0.09257971919685268 -0.037175502750236004 -0.056134708123188305 -0.472586256725329 	0.3868997237643221 0.005395848845386617 -0.024975642049125578 0.34085311168657284 0.06589530648239535 	
0.2233579749854944 -0.291235545305702 0.04802123892985448 -0.13657247427474425 0.07626916186494277 	-0.18757616390480136 -0.13298781935535392 -0.3191840187467506 -0.4680034644961993 -0.32715728317235276 	
0.24474644954994307 -0.1123714916517712 0.4806978638373834 0.17055043641866321 -0.015751417470750068 	0.12448185798507508 -0.4340477943739652 0.02565923381172387 0.2923969127303865 -0.3837024150098036 	
0.07551690894626471 0.4201970360702465 0.183919843577831 -0.2921235799612325 -0.04713157719222917 	0.14242997726359297 0.32296499750828245 0.04445016033869273 -0.4337279560307226 -0.3103410217713066 	
-0.4240605512648153 0.3089251770600503 0.4265660706516327 -0.025373172265339413 0.3953985900748982 	0.0014959307386070702 -0.457728592955727 0.0014204726037283478 -0.34392988722076623 0.2586306595932979 	
0.39907859667382434 0.4682503937758324 0.4097209649409979 -0.12138466988932085 -0.1850419928028826 	-0.4760543644330683 0.20822424269046877 -0.02703059718315872 0.43513265374870685 -0.27997016932291774 	
0.03651467347151524 -0.12050431618044657 -0.0044587142613997524 0.4933100080699415 -0.3824383060561164 	-0.0635056617881435 0.4614144139594886 -0.26419530202744446 -0.21789928304336037 0.02023308231972827 	

0.10999324529889067 0.37898918747300736 0.028217368244628678 -0.4738541739510145 0.2250372417083851 	0.43742015730940537 0.2773443592982351 0.08949591391474074 0.2225526668697333 -0.3843774166918345 	
-0.1298588381107039 -0.43468509968101315 -0.4012963904476813 0.002281778612217591 -0.43637647171413607 	-0.12484915103604091 -0.41983182118846 0.2464789916709405 -0.23639523303534715 -0.1729211522740425 	
-0.33106214867640044 0.4968834435308812 -0.3653510788265657 -0.35425535937670477 -0.13561579074287863 	0.02299664493699752 -0.22944712412351834 -0.22672378617718075 0.25781695340357585 -0.10632656516968449 	
-0.10859156411401398 -0.3215166046459291 0.07294222408420659 0.02394156222110377 -0.22077566610535485 	0.2708820604127177 -0.2737742024429712 0.2782909345583016 -0.13303680602314188 0.38643670762306237 	
-0.17273218155969267 -0.48127007836273455 -0.34215193392204585 -0.3209900222581174 0.3480845977716402 	0.22432120125459223 0.4154124221329097 0.23694903860089628 -0.2120436186721043 0.3036221403550875 	
0.29352779828689335 -0.09562316309951145 0.022243002062680067 0.32705877076120576 -0.20373820157869685 	0.440011691672519 0.3620235820195296 0.34676569294679277 0.25452878846302746 0.1437963544881015 	
-0.20112194644797823 -0.4826249649140038 -0.287188030502603 0.3654572527383449 -0.11494803304872632 	-0.14938405668292376 -0.14497535195863026 -0.18997188872386783 -0.224663715855537 -0.3424716141691417 	
-0.2879324955965996 -0.16538545917744463 0.47701047484291687 -0.2718548445279337 0.11075749573308152 	0.344690382649856 0.36552587850401297 -0.2639229657597548 0.47740383892755006 0.30494636658203905 	
0.2084779366179641 0.31379807965310696 0.3459789420850636 0.07808972149744826 0.31517507053128707 	-0.3138524355444615 -0.06281644392277352 -0.28622221030619194 0.34071414332633987 0.32750805834491914 	
-0.34710905523399094 -0.21519214419628743 -0.25631837865213364 -0.14553568024516558 -0.4090510407241999 	-0.2708714999026052 -0.20788859795568948 0.001477199757306008 -0.4405291847165143 -0.3040776630579602 	



0.3279622066220982 -0.3963061213853038 0.14109817649316833 -0.19380701832827818 0.45826684366408954 0.31362453287175995 -0.3591452997091129 0.17502729880666132 0.023587348350471864 0.2925266377426696 0.3975097315797225 -0.09287535968409173 0.021764229538179233 -0.284747646097857 -0.19933665383317603 0.4125904001500391 -0.43939943320419445 0.11258472963517917 0.12611500497493158 0.23388839925129304 0.49527252403724814 0.06779936671632524 -0.4281879652947721 0.187625449883299 -0.3138943863933111 -0.44634322125202625 -0.38563012699225635 0.16001780664817564 -0.2010013849310687 -0.06377031786635005 0.027980328682290258 -0.12012594850393192 0.21786692069973157 -0.386780939121513 0.1392983341030393 0.16935757069988253 0.1796136232955865 0.3286463030602415 0.3471631079309723 0.16810119426691117 -0.08402078909452469 0.12905387881172384 0.2978308448898472 -0.21790117203485793 -0.340174263800008 -0.28939462052941717 0.00707539641771564 0.032740274038823965 -0.19193367551185594 -0.15914352011067054 -0.09022249232052111 0.17682089452072847 -0.08674543375527669 0.12055965643768622 -0.15345102897646984 -0.4617604949715812 
0.36022905407276556 -0.38038594795936487 0.049524455153911795 -0.4888420631753911 -0.153557701341405 -0.12592318555648216 -0.345927860638434 -0.2679378822779619 0.23384752499264058 0.07888798329873238 -0.3082292114874536 0.007232014966595555 0.27713682630921677 0.10594291249392385 0.2219243348692816 -0.14454403151946302 0.34926894556465 0.37110337197362614 0.38348536987663656 0.13470753890411938 0.0017145980279368984 -0.08261769769136704 -0.23331291125428152 0.17194124406997752 -0.41452072323208833 0.3395364906430357 0.41996994180590885 0.4109307999543097 -0.0195377814960222 0.09764509619586444 0.05083769584940739 -0.42299813378085854 0.35396153661770857 -0.012106374859943777 0.18195920736723675 -0.4111466915956075 0.22424620701587786 0.23662151468907372 0.2806413629603005 -0.41918341733402387 -0.1300929224848041 0.013419797018476906 -0.03950119352026209 -0.33565098049396275 0.31359613992702284 -0.012243953129927649 0.2552798282675579 0.40200417324050347 -0.005706221498327571 -0.2969261585676503 -0.3203141830279158 0.38125833416293686 0.17112530097780446 0.3476433162707726 0.2080292709254479 -0.203744719269615 
-0.21810038421547245 -0.20099524553195938 0.1524262278778364 0.045766117206429056 0.013576199614579313 -0.3917262904072511 0.2489697472559284 0.35052257965952704 0.21126099916182675 -0.2422091241599747 0.18340544922966304 0.4655882111528793 -0.11418191708315895 -0.1604214677693022 0.20607179873970993 0.4044609164045746 -0.4362819448831973 -0.2831308665462355 -0.32830900249644523 0.052825963328588 -0.4280606956661029 0.05074269546617473 -0.3730268542077875 -0.47163390190114435 -0.08335903292073416 -0.38231817937946266 0.18840946904073277 0.189383819529196 0.39108799424397356 0.2962396947268176 0.2769026193101685 -0.16907210429266292 -0.25012958790415685 -0.4601163180151994 0.3813292444329247 0.39517812040881667 -0.09461808942723478 0.48110243187323876 -0.24430336556922594 0.3747896865667862 0.46838203228210584 -0.264761760454425 -0.4341138191005387 0.07845018075156969 0.24855937852316648 -0.04997348425699714 -0.490597150506834 0.23141000426080346 -0.30872108182954877 -0.255557373991765 -0.14211305849306022 0.07498006930802135 -0.4094757785530722 -0.1672694698659204 0.3502365015559348 -0.2700350868376594 
0.4538938547179169 0.4867592050528248 0.22475601337903686 -0.4630841347351791 0.1900674799592822 -0.3060677649885918 0.2861481973835574 0.40575628335442204 -0.4676023181327481 -0.026828399000312145 0.338443322668747 0.09192808965947398 -0.3248654017882257 0.4525919179995736 -0.020972285147643252 0.12680270874541014 -0.007843561424475702 -0.18621957520456797 0.292839462053911 -0.045708764104112516 -0.06507974472870512 0.3132533405760112 0.21046747923349618 0.27945722850284815 -0.22214528860127716 -0.13413277679466148 0.4202406082026675 -0.06313669675641329 -0.25125080929492394 0.10168669657580161 0.22948918020303768 -0.04439081578403293 -0.23304510140147686 0.09679041269358339 0.36184538127319255 -0.4988251517237698 -0.3086109515775362 -0.0947281419946633 -0.2686774835933223 -0.14094778730651408 0.11701465995576565 -0.08652733793669123 0.4620806733188167 0.13613168916587873 -0.11997519488635695 -0.09441290212661622 -0.2811152430279784 0.230814894287758 -0.09643483385858392 0.26407732428123853 0.21037020079893454 -0.25041976515196196 -0.1930847745535953 -0.013051979800202281 -0.049088452623877094 -0.2971679544541732 
0.021442477329764936 -0.22498731916976047 -0.2607739162535737 -0.4037025695290007 -0.29250949490722844 -0.4683453977533115 -0.25777916551086427 0.11064128652127506 -0.0856412017186727 0.37554179639947394 0.05567553817472914 -0.4791600957162548 -0.05244896214035251 -0.32569239137875294 0.1155971821938611 -0.28902171620477096 -0.39428626761403207 0.4123020014341159 0.15813934269047414 0.18649859977884864 -0.430183019541139 0.009291128069078936 0.45918049018786317 0.255115120510596 -0.1453765784401299 -0.4885060411767401 -0.292212284644003 -0.3272615302109708 -0.20788886913108948 0.2303355333290663 -0.11343159235644155 -0.26868895263199255 -0.416593359199937 0.4555974008603105 -0.1864133267239366 0.19371988392223982 -0.005234839781514935 0.04407834629676495 0.08514434705170382 0.4128384225669547 0.01692632640726553 -0.07564854921238229 0.3205074042000136 -0.15283361283649963 -0.12100445237106237 0.04310655361869538 -0.3124348878333764 0.47311680074235873 0.22205316736073977 0.4948205587411953 -0.46711008993743913 -0.4826404428945704 0.3146706826166126 0.11664101493958122 0.3028807366216495 -0.282094194153838 
-0.419938419967324 0.3152365080751052 0.464618529993356 -0.22614791776417809 0.30783904698026715 0.28487469948752964 0.38438666018339945 -0.10312796760506719 0.3835269611954942 0.1366943424670145 0.11144293902057889 0.12060528879124702 0.14864208787164693 -0.47139178960283 -0.3168322445287951 -0.464461301275878 0.49150181444062296 -0.17212645453063916 -0.37963204586476884 0.0595328142059146 0.23758338440221544 0.4406664463286973 -0.2759744352223143 -0.4640691412370086 0.3346881674684584 0.14313775977927382 0.17869358917430928 0.21659287808006905 0.04972133047657673 0.08252704476197173 -0.05924538440612605 -0.2382923983028128 0.004443497551557199 -0.1124070596214416 -0.14737294321181776 0.179862304340701 0.13121479209016876 -0.026447964876374328 0.325604249473723 0.024082543779934643 -0.04359272871150095 -0.3072192560973956 0.27596164044745164 0.4558759872562212 -0.44593505561433366 0.10885537849039814 0.28326751160684377 0.030221439327030534 0.25951833667513996 0.12419144911940319 -0.33946712132400475 -0.24302212787743296 -0.12512658874710922 0.38548431010330314 0.1077856028645184 0.1389018437817966 
-0.16237993338341175 -0.30499874455156534 -0.07472503732009408 0.19128953421050995 -0.24315928258681485 0.2003388741350606 -0.0767844134292283 0.06442064764193706 0.024396717759467633 -0.04259864065885703 -0.22397997738674646 0.33210277287460377 0.45794847758093965 -0.1546432099990638 -0.3076019432874148 -0.046765354177562744 0.03281629655351501 0.49592267925549927 0.2674460954612605 0.0316726496496108 -0.47712312602100765 -0.03733688063890315 -0.06497474199300118 -0.2438845535329916 0.0007532110678230437 -0.43007277248374504 -0.298105346257303 0.4917279755524235 0.3974712312701536 -0.05927541047224368 0.020233594665212882 0.0364102190239944 0.07542117015111306 -0.38258723946039624 0.22648370642360743 0.39399876540827167 0.23964560637984247 0.18821360136352866 0.34647811005560253 0.12610465285432457 0.22870820529295116 0.10572668425926296 0.05665953071361432 -0.1564075573867151 0.4835321093178009 -0.008576307776926447 0.08092379328645101 0.15973420789403273 -0.25989792428831465 0.2902451708402656 -0.09264952743297998 -0.34823592903968026 -0.03392387877112162 -0.31779636826009444 -0.3423264739039403 -0.3102713947138391 
-0.11080962403619944 0.4027503364066678 0.11920582439092572 -0.22552633991955967 0.2072523975241426 -0.4585095237962716 -0.09366774708592819 -0.4009181953978741 -0.26788685712511984 -0.24239580042042239 0.06420723906270233 0.032901115785216636 0.059311368520092146 -0.3324819457303569 0.060738361401461056 0.380083447617028 0.34272964470302686 0.26705056227623736 -0.20357424883215555 0.22554409414005946 0.4388632787404699 0.3588238322967963 -0.39874378508164043 0.13649587212061193 -0.4889440014695085 0.46469389824174834 -0.4938801939785294 -0.27283306666828605 0.3875730916836553 -0.011689400470913583 -0.1347820386831059 -0.22833745096363772 -0.45554270414409204 -0.12685965147974315 0.2622830335955689 0.34196091607445506 -0.3701459482326029 0.41678948862124937 0.41842571070631435 -0.0373472363700796 0.08562848442998326 0.4041262605011508 0.498232054269879 -0.12704588541102296 0.01421231148292255 -0.2406072338991157 -0.25230959651397106 0.1811036983792661 0.5000720929405581 -0.11083559777990294 0.3037530582759725 0.11040324857905791 -0.023038649972021586 0.39122695449377004 0.012946084481039198 -0.18981986016697253 


-0.4771809612559987 0.15241451018291285 0.32879402459887064 -0.25761323960336335 0.13787569458138618 0.370977180679876 0.19061058688909907 -0.32682161464075726 
-0.08420387984533285 -0.12083043585163616 -0.14858249391740522 0.38606111407013083 0.23284389402783776 0.00748103444155953 0.1392815828814196 -0.2478451228526289 
0.18363788006157064 -0.4917976513694361 0.28897981850616244 -0.406440776370292 -0.3020802523543316 0.3343642720338687 0.0805965207548837 0.1693070182018244 
0.04117251215028233 0.34460558988450796 -0.057110435000559207 0.0010389764034874668 0.16727376126042162 -0.19147128876228714 -0.0053916520235080725 -0.43819966124769477 
-0.3903143247027077 -0.17389766991581618 -0.2391083401021554 0.4710846083582131 -0.26754199299247416 0.13959683520244975 0.15845886264912087 -0.011600749396628628 
0.42307888500774005 0.44538784110756086 -0.06878967207858153 0.2829871315312269 0.40138385781442265 -0.25030235189088496 -0.15121731318761858 0.27239956171783186 


0.3539093403332881 0.45795000600279245 0.3696482737366908 0.3900922837898082 -0.26129104863155733 -0.10185769307256486 
-0.324735621070387 0.08633002887933275 0.05882157505363928 -0.4453127788805385 -0.22868970147298232 0.23177967005648792 
0.10153216733366936 0.11234795708544089 0.38554798621989045 -0.10799084034022652 0.046202973070215814 -0.2490664447282715 
0.2985333992424271 -0.3992965430082052 -0.1953129840994368 -0.15132941195227062 -0.24369130513000228 -0.03762873449407672 
-0.22212238281896896 0.3809053370361831 0.08535929006900199 -0.3498633719647749 -0.1934487020021018 -0.40397058492956156 
0.24221942753437478 -0.09005288578306296 -0.04432205848498556 0.06822278357363937 -0.3683339847697188 0.45046947947803634 


0.026917760852718107 0.3442874352630296 -0.563139353258377 -0.10267027415131269 0.11029599949332317 -0.09160758894991798 
-0.4373728551213165 0.2530784044184323 0.2606799439114113 -0.5590190528361048 0.06541180562136766 0.1786214706637334 
0.11063160279801447 -0.16759111939028612 0.2335958724877673 0.3742759101888422 -0.08686163089201555 0.22332133680769956 
0.01516368701580962 -0.0964660855240364 -0.34813570070263317 0.12275372941787123 -0.42320912075420647 -0.03216394773861767 
0.3617275629686471 -0.016646681132385516 0.14306068031724126 -0.0008463853685490895 0.06762526438274431 -0.1208555166433199 
-0.4041226412286435 -0.3037365249829601 0.22545981252016772 0.39014884018118207 0.3409591210740141 0.11251011144319505 
-0.2027387520311047 -0.1300915056837656 -0.06162216138845346 -0.4006389506964444 0.028580514335884974 0.19623266974208742 
-0.5277825265697778 -0.35476185661900433 -0.08426595059029655 -0.29387813369204313 0.3218774771118577 -0.5073168463223366 
0.05881206909561326 -0.06596335031088965 -0.0353157418882775 0.01708260188239545 -0.3283981499337922 0.1195456069971598 
-0.34572715271089144 0.40984401671468884 0.2927819497627324 -0.21321618971006776 -0.4866516209675488 0.2701374670586471 


